Date,gross_ret,net_ret,turnover
2018-06-20,-0.0006602777727906996,-0.0006602777727906996,0.0
2018-06-21,-0.000665318698866109,-0.000665318698866109,0.0
2018-06-22,0.0033725247072236516,0.0033725247072236516,0.0
2018-06-25,-0.0026356419573908773,-0.0026356419573908773,0.0
2018-06-26,-0.001372138532778951,-0.001372138532778951,0.0
2018-06-27,-0.0036747639653395632,-0.0036747639653395632,0.0
2018-06-28,-0.003914369556567437,-0.003914369556567437,0.0
2018-06-29,0.0048425086038247425,0.0048425086038247425,0.0
2018-07-02,-0.005366292100839,-0.005369589474479681,0.00439649818757501
2018-07-03,0.005524537920143639,0.005524537920143639,0.0
2018-07-06,0.00046909937534673964,0.00046909937534673964,0.0
2018-07-09,0.0024370349588567412,0.0024370349588567412,0.0
2018-07-10,0.002025806954682123,0.002025806954682123,0.0
2018-07-11,-0.0029009629044236887,-0.0029009629044236887,0.0
2018-07-12,0.0035424926267674274,0.0035424926267674274,0.0
2018-07-13,-0.0010328552283694154,-0.0010328552283694154,0.0
2018-07-16,-0.003257134276957116,-0.003257134276957116,0.0
2018-07-17,-0.0015704923961496532,-0.0015704923961496532,0.0
2018-07-18,-0.001032604178020853,-0.001032604178020853,0.0
2018-07-19,-0.0012170906414134684,-0.0012170906414134684,0.0
2018-07-20,0.002564362406959895,0.002564362406959895,0.0
2018-07-23,-0.0009033613499703139,-0.0009033613499703139,0.0
2018-07-24,0.0018717594063830218,0.0018717594063830218,0.0
2018-07-25,0.00148584187161211,0.00148584187161211,0.0
2018-07-26,-0.001819995387244441,-0.001819995387244441,0.0
2018-07-27,0.004106789879630304,0.004106789879630304,0.0
2018-07-30,0.0003435719277553436,0.0003435719277553436,0.0
2018-07-31,0.002534737049798196,0.002534737049798196,0.0
2018-08-01,-0.003542666141161233,-0.003554318161549272,0.015536027184051698
2018-08-02,-0.004401150740504497,-0.004401150740504497,0.0
2018-08-03,0.005432704670803368,0.005432704670803368,0.0
2018-08-06,-0.0007666804085061188,-0.0007666804085061188,0.0
2018-08-07,0.00012583672526027685,0.00012583672526027685,0.0
2018-08-08,0.0029953641945534844,0.0029953641945534844,0.0
2018-08-09,0.0010357793612739636,0.0010357793612739636,0.0
2018-08-10,8.56097395148959e-05,8.56097395148959e-05,0.0
2018-08-13,-0.007272418929546338,-0.007272418929546338,0.0
2018-08-14,0.0023231688793983276,0.0023231688793983276,0.0
2018-08-17,0.005668622709709452,0.005668622709709452,0.0
2018-08-20,0.005050518487507645,0.005050518487507645,0.0
2018-08-21,0.0010617948666817576,0.0010617948666817576,0.0
2018-08-24,0.005026295362781555,0.005026295362781555,0.0
2018-08-27,0.004402555544572727,0.004402555544572727,0.0
2018-08-28,-0.002040128659856669,-0.002040128659856669,0.0
2018-08-29,5.415907535908897e-05,5.415907535908897e-05,0.0
2018-08-30,-0.001455482752608471,-0.001455482752608471,0.0
2018-08-31,-0.00020602127174906544,-0.00020602127174906544,0.0
2018-09-05,-0.00014007397286786802,-0.00014454656440899245,0.005963455388165895
2018-09-06,0.0030636306166472167,0.0030636306166472167,0.0
2018-09-07,-0.000910723844985727,-0.000910723844985727,0.0
2018-09-10,-0.004429331024143185,-0.004429331024143185,0.0
2018-09-11,-0.005401947516633613,-0.005401947516633613,0.0
2018-09-12,0.005602571945346531,0.005602571945346531,0.0
2018-09-17,-0.0021344493655239267,-0.0021344493655239267,0.0
2018-09-18,-0.004739437308148385,-0.004739437308148385,0.0
2018-09-19,-0.000526449595544403,-0.000526449595544403,0.0
2018-09-24,-0.005572402151770167,-0.005572402151770167,0.0
2018-09-25,0.0031260855359019706,0.0031260855359019706,0.0
2018-09-26,-0.0011303785641131132,-0.0011303785641131132,0.0
2018-09-27,-0.005277315813221487,-0.005277315813221487,0.0
2018-09-28,0.0009390743879824587,0.0009390743879824587,0.0
2018-10-01,0.0009572423542377,0.000947432631063839,0.013079630898481298
2018-10-04,-0.008783758264433613,-0.008783758264433613,0.0
2018-10-05,-0.008787770707086253,-0.008787770707086253,0.0
2018-10-08,-0.0026538281104414013,-0.0026538281104414013,0.0
2018-10-09,-0.0006623605308797065,-0.0006623605308797065,0.0
2018-10-10,0.005981115375165695,0.005981115375165695,0.0
2018-10-11,0.0027555029781106796,0.0027555029781106796,0.0
2018-10-12,0.005306305784191098,0.005306305784191098,0.0
2018-10-15,0.0037045762893266345,0.0037045762893266345,0.0
2018-10-16,0.0016066062966805417,0.0016066062966805417,0.0
2018-10-17,-0.005088120859965272,-0.005088120859965272,0.0
2018-10-22,-0.0026593988532007252,-0.0026593988532007252,0.0
2018-10-23,-0.0002552012750703389,-0.0002552012750703389,0.0
2018-10-24,0.0050508952625736145,0.0050508952625736145,0.0
2018-10-25,-0.004718319920858006,-0.004718319920858006,0.0
2018-10-26,-0.00041945721954625306,-0.00041945721954625306,0.0
2018-10-29,0.00550687009524104,0.00550687009524104,0.0
2018-10-30,-0.003885399364551508,-0.003885399364551508,0.0
2018-10-31,0.003122853396089297,0.003122853396089297,0.0
2018-11-01,0.0043448828519979995,0.004339730717421162,0.006869512769116154
2018-11-02,0.0036705389165129663,0.0036705389165129663,0.0
2018-11-05,-0.001532083638200121,-0.001532083638200121,0.0
2018-11-06,-0.0011220056195883061,-0.0011220056195883061,0.0
2018-11-07,0.002147289504931326,0.002147289504931326,0.0
2018-11-12,-0.004712620762914296,-0.004712620762914296,0.0
2018-11-13,0.0035789248354757015,0.0035789248354757015,0.0
2018-11-14,0.0032210107208481076,0.0032210107208481076,0.0
2018-11-15,0.0018899948171804276,0.0018899948171804276,0.0
2018-11-16,0.00554283082242319,0.00554283082242319,0.0
2018-11-19,0.00318688707269078,0.00318688707269078,0.0
2018-11-20,-0.0034567688958677427,-0.0034567688958677427,0.0
2018-11-21,-0.0012958505001585238,-0.0012958505001585238,0.0
2018-11-27,0.00011597458152586957,0.00011597458152586957,0.0
2018-11-28,0.0025709401974248003,0.0025709401974248003,0.0
2018-11-29,0.005942262822007818,0.005942262822007818,0.0
2018-11-30,0.0006354891307446285,0.0006354891307446285,0.0
2018-12-03,0.0034426779337488334,0.003437738401150089,0.006586043464992614
2018-12-04,0.0031332839556036086,0.0031332839556036086,0.0
2018-12-07,0.006562005059764811,0.006562005059764811,0.0
2018-12-10,-0.007402557234939302,-0.007402557234939302,0.0
2018-12-11,0.0006416780703242995,0.0006416780703242995,0.0
2018-12-12,0.005634353184260165,0.005634353184260165,0.0
2018-12-13,0.0011224752760505595,0.0011224752760505595,0.0
2018-12-14,-0.00039342280123277516,-0.00039342280123277516,0.0
2018-12-17,0.005828432589835532,0.005828432589835532,0.0
2018-12-18,0.0022323798825504802,0.0022323798825504802,0.0
2018-12-19,0.0009124296114486998,0.0009124296114486998,0.0
2018-12-20,0.004172147908292273,0.004172147908292273,0.0
2018-12-21,-0.007283596861945243,-0.007283596861945243,0.0
2018-12-24,0.0016947610633503247,0.0016947610633503247,0.0
2018-12-26,-0.0005623743543861824,-0.0005623743543861824,0.0
2018-12-27,0.004933156742645645,0.004933156742645645,0.0
2018-12-28,0.005608584783986532,0.005608584783986532,0.0
2018-12-31,0.0018508459289848134,0.0018508459289848134,0.0
2019-01-02,-0.0012335253084004001,-0.0012374894445888731,0.005285514917963946
2019-01-03,0.001946660852031857,0.001946660852031857,0.0
2019-01-04,-0.0037735629491176246,-0.0037735629491176246,0.0
2019-01-07,0.0015895942369813475,0.0015895942369813475,0.0
2019-01-08,-0.0008124066900805386,-0.0008124066900805386,0.0
2019-01-09,0.003960484720356904,0.003960484720356904,0.0
2019-01-10,-0.003170738466016531,-0.003170738466016531,0.0
2019-01-11,0.0007492378225256451,0.0007492378225256451,0.0
2019-01-14,-0.0011609023041555288,-0.0011609023041555288,0.0
2019-01-15,0.0036555915723824016,0.0036555915723824016,0.0
2019-01-16,0.0009838730950988885,0.0009838730950988885,0.0
2019-01-17,-0.0005900349722383703,-0.0005900349722383703,0.0
2019-01-18,-0.00400446642326173,-0.00400446642326173,0.0
2019-01-23,-0.003439025390134034,-0.003439025390134034,0.0
2019-01-24,0.0010954078237674159,0.0010954078237674159,0.0
2019-01-25,0.0019269998235218072,0.0019269998235218072,0.0
2019-01-28,-0.002400076299266948,-0.002400076299266948,0.0
2019-01-29,0.002564826527928536,0.002564826527928536,0.0
2019-01-30,0.0026965820072563066,0.0026965820072563066,0.0
2019-01-31,0.007128827927626139,0.007128827927626139,0.0
2019-02-01,-0.0005329194652186998,-0.0005371964020886068,0.005702582493209318
2019-02-04,-0.0016083015614081332,-0.0016083015614081332,0.0
2019-02-05,0.0021107797672436854,0.0021107797672436854,0.0
2019-02-06,0.0019220305259041025,0.0019220305259041025,0.0
2019-02-07,0.0020915888651243174,0.0020915888651243174,0.0
2019-02-08,-0.0021858108495223434,-0.0021858108495223434,0.0
2019-02-11,-0.003827412918637679,-0.003827412918637679,0.0
2019-02-12,-0.001526171120876334,-0.001526171120876334,0.0
2019-02-15,0.000981533819553592,0.000981533819553592,0.0
2019-02-20,0.003453803074190939,0.003453803074190939,0.0
2019-02-21,-0.003059111513622114,-0.003059111513622114,0.0
2019-02-22,0.0022234903737532465,0.0022234903737532465,0.0
2019-02-25,0.0019130184261778535,0.0019130184261778535,0.0
2019-02-26,0.00012508358400106022,0.00012508358400106022,0.0
2019-02-27,-0.004413232599604462,-0.004413232599604462,0.0
2019-02-28,-0.0031532267667326486,-0.0031532267667326486,0.0
2019-03-01,-0.0046312736944299,-0.004636535791760905,0.0070161297746728635
2019-03-06,0.0026372606518037783,0.0026372606518037783,0.0
2019-03-07,0.0010083760863905408,0.0010083760863905408,0.0
2019-03-08,0.0033455946819798596,0.0033455946819798596,0.0
2019-03-11,0.002146900399609908,0.002146900399609908,0.0
2019-03-12,0.00692173119284527,0.00692173119284527,0.0
2019-03-13,0.00337419844169648,0.00337419844169648,0.0
2019-03-14,-0.004240384202668362,-0.004240384202668362,0.0
2019-03-15,0.005046544161187281,0.005046544161187281,0.0
2019-03-18,0.0008055949184887204,0.0008055949184887204,0.0
2019-03-19,0.0027806555688918043,0.0027806555688918043,0.0
2019-03-20,0.004046214475690256,0.004046214475690256,0.0
2019-03-25,0.00023570603238993277,0.00023570603238993277,0.0
2019-03-26,0.001931241902581382,0.001931241902581382,0.0
2019-03-27,-0.0019000240156259996,-0.0019000240156259996,0.0
2019-03-28,-0.0008831037164417299,-0.0008831037164417299,0.0
2019-04-02,0.0030551052752256333,0.0030446785647825487,0.013902280590779553
2019-04-03,-0.003509419705808234,-0.003509419705808234,0.0
2019-04-04,-0.00011943251924448259,-0.00011943251924448259,0.0
2019-04-05,0.0017371117312885433,0.0017371117312885433,0.0
2019-04-08,-0.0008448036486654251,-0.0008448036486654251,0.0
2019-04-09,0.004269077336793905,0.004269077336793905,0.0
2019-04-10,-0.000682002290548322,-0.000682002290548322,0.0
2019-04-11,-0.0047466052272274835,-0.0047466052272274835,0.0
2019-04-12,-0.0005455215961143403,-0.0005455215961143403,0.0
2019-04-15,0.001148202836998057,0.001148202836998057,0.0
2019-04-16,-0.0013867528121204945,-0.0013867528121204945,0.0
2019-04-22,-0.0050467899128330855,-0.0050467899128330855,0.0
2019-04-23,-0.0006247133115998793,-0.0006247133115998793,0.0
2019-04-24,0.0065370587194597185,0.0065370587194597185,0.0
2019-04-25,-0.0025611579476869984,-0.0025611579476869984,0.0
2019-04-26,0.006306232042371441,0.006306232042371441,0.0
2019-05-03,0.0020545820270137663,0.0020528466975444568,0.0023137726257458913
2019-05-06,-0.0019553320798572074,-0.0019553320798572074,0.0
2019-05-07,-0.0006180689775750072,-0.0006180689775750072,0.0
2019-05-08,-0.005430711964400013,-0.005430711964400013,0.0
2019-05-09,4.7109068131186456e-05,4.7109068131186456e-05,0.0
2019-05-10,-0.00023582609178338782,-0.00023582609178338782,0.0
2019-05-13,0.0013731135652201756,0.0013731135652201756,0.0
2019-05-14,0.0011970145024490385,0.0011970145024490385,0.0
2019-05-15,-0.0009780778065634193,-0.0009780778065634193,0.0
2019-05-16,-0.00028842259929815313,-0.00028842259929815313,0.0
2019-05-17,0.0020058853359384674,0.0020058853359384674,0.0
2019-05-20,0.011185293260007143,0.011185293260007143,0.0
2019-05-21,-0.004522253800984727,-0.004522253800984727,0.0
2019-05-22,0.0014886429133414,0.0014886429133414,0.0
2019-05-23,0.002308912517225292,0.002308912517225292,0.0
2019-05-24,0.0054942179287363275,0.0054942179287363275,0.0
2019-05-29,-0.001902214704489875,-0.001902214704489875,0.0
2019-05-30,0.005823127723119823,0.005823127723119823,0.0
2019-05-31,0.006049948526362565,0.006049948526362565,0.0
2019-06-03,0.010978675361093232,0.010975048164072925,0.004836262693743654
2019-06-04,-0.002963756802254459,-0.002963756802254459,0.0
2019-06-07,0.003949408175202674,0.003949408175202674,0.0
2019-06-10,-0.0035466321645932796,-0.0035466321645932796,0.0
2019-06-11,0.0008050634965081234,0.0008050634965081234,0.0
2019-06-12,0.0009016677251341819,0.0009016677251341819,0.0
2019-06-13,0.003081080176645411,0.003081080176645411,0.0
2019-06-14,-0.002415070371179769,-0.002415070371179769,0.0
2019-06-17,-0.004543702993058573,-0.004543702993058573,0.0
2019-06-18,0.002889221288229272,0.002889221288229272,0.0
2019-06-19,0.0029531534651106167,0.0029531534651106167,0.0
2019-06-20,0.012896150907413431,0.012896150907413431,0.0
2019-06-21,-0.002070073675390963,-0.002070073675390963,0.0
2019-06-24,0.0055663973353396,0.0055663973353396,0.0
2019-06-25,0.003842736621774505,0.003842736621774505,0.0
2019-06-26,-0.003151906957510989,-0.003151906957510989,0.0
2019-06-27,0.0004771156274107251,0.0004771156274107251,0.0
2019-06-28,-0.00036859683927811473,-0.00036859683927811473,0.0
2019-07-01,-0.0047758146786212674,-0.004786380720620622,0.014088055999139981
2019-07-02,0.009395078445683625,0.009395078445683625,0.0
2019-07-03,0.0013627114195142935,0.0013627114195142935,0.0
2019-07-08,-0.009718354392466743,-0.009718354392466743,0.0
2019-07-09,0.0008742547506042272,0.0008742547506042272,0.0
2019-07-10,0.0037850827786555263,0.0037850827786555263,0.0
2019-07-11,-0.00213484656759657,-0.00213484656759657,0.0
2019-07-12,0.0015929703949080804,0.0015929703949080804,0.0
2019-07-15,0.0017219857702750968,0.0017219857702750968,0.0
2019-07-16,-0.001490159949035732,-0.001490159949035732,0.0
2019-07-17,0.0077280923672645345,0.0077280923672645345,0.0
2019-07-18,0.0029764164894226963,0.0029764164894226963,0.0
2019-07-19,-0.010716680364501581,-0.010716680364501581,0.0
2019-07-22,-0.0019866869196303746,-0.0019866869196303746,0.0
2019-07-23,-0.002913908475608434,-0.002913908475608434,0.0
2019-07-24,0.0004970849425118557,0.0004970849425118557,0.0
2019-07-25,-0.003551813296763954,-0.003551813296763954,0.0
2019-07-26,0.001420759002157129,0.001420759002157129,0.0
2019-07-29,-0.000176319403463651,-0.000176319403463651,0.0
2019-07-30,-0.0016958238163722115,-0.0016958238163722115,0.0
2019-07-31,-0.0027438467215902744,-0.0027438467215902744,0.0
2019-08-01,0.007508903425065633,0.007499216039334167,0.012916514308620314
2019-08-02,-8.465840990286961e-05,-8.465840990286961e-05,0.0
2019-08-05,0.0035342419469758285,0.0035342419469758285,0.0
2019-08-06,0.0058302425011331725,0.0058302425011331725,0.0
2019-08-07,0.002405327060507497,0.002405327060507497,0.0
2019-08-08,0.006928974942484159,0.006928974942484159,0.0
2019-08-09,0.0005954832250518503,0.0005954832250518503,0.0
2019-08-14,0.0076094899535432995,0.0076094899535432995,0.0
2019-08-19,-0.005443921779129817,-0.005443921779129817,0.0
2019-08-20,0.0030232410579364246,0.0030232410579364246,0.0
2019-08-21,-0.004876322814627656,-0.004876322814627656,0.0
2019-08-22,-0.0069047906723085145,-0.0069047906723085145,0.0
2019-08-23,0.011552842456721973,0.011552842456721973,0.0
2019-08-26,0.006391285345195303,0.006391285345195303,0.0
2019-08-27,0.0061027261353258574,0.0061027261353258574,0.0
2019-08-28,-0.002592070549835157,-0.002592070549835157,0.0
2019-08-29,-0.0059983486342140135,-0.0059983486342140135,0.0
2019-08-30,0.0013894733679711325,0.0013894733679711325,0.0
2019-09-03,-0.001548005593235767,-0.0015568181636971636,0.011750093948528773
2019-09-04,0.004046628822294224,0.004046628822294224,0.0
2019-09-05,-0.010840869420906046,-0.010840869420906046,0.0
2019-09-06,0.0003262550063317042,0.0003262550063317042,0.0
2019-09-09,-0.0015856204327167934,-0.0015856204327167934,0.0
2019-09-12,-0.0016802918021091725,-0.0016802918021091725,0.0
2019-09-13,-0.002995214398871789,-0.002995214398871789,0.0
2019-09-16,0.0019601629966395275,0.0019601629966395275,0.0
2019-09-17,-0.0041974037027431455,-0.0041974037027431455,0.0
2019-09-18,-0.0012835032829222595,-0.0012835032829222595,0.0
2019-09-19,-0.0026981928837241684,-0.0026981928837241684,0.0
2019-09-20,0.022925365748328277,0.022925365748328277,0.0
2019-09-23,0.011971873477321407,0.011971873477321407,0.0
2019-09-24,0.003006849322387421,0.003006849322387421,0.0
2019-09-25,-0.012739322621104826,-0.012739322621104826,0.0
2019-09-26,0.004513991428547297,0.004513991428547297,0.0
2019-09-27,-0.002975152949177232,-0.002975152949177232,0.0
2019-09-30,-0.005970408279512682,-0.005970408279512682,0.0
2019-10-01,-0.0006032873419253005,-0.0006121961010990043,0.011878345564938497
2019-10-04,-0.003442027069256914,-0.003442027069256914,0.0
2019-10-07,-0.005425015188527545,-0.005425015188527545,0.0
2019-10-10,-0.0073460654037709495,-0.0073460654037709495,0.0
2019-10-11,-0.002123835670234044,-0.002123835670234044,0.0
2019-10-14,0.0033145139298077788,0.0033145139298077788,0.0
2019-10-15,-0.0014259443406638903,-0.0014259443406638903,0.0
2019-10-16,0.0035961528008079716,0.0035961528008079716,0.0
2019-10-17,0.0038922609024338315,0.0038922609024338315,0.0
2019-10-18,0.002121877741023252,0.002121877741023252,0.0
2019-10-23,0.0013545983521597602,0.0013545983521597602,0.0
2019-10-24,0.0016652836936542302,0.0016652836936542302,0.0
2019-10-25,0.00010200469624885201,0.00010200469624885201,0.0
2019-10-30,0.00505458534851455,0.00505458534851455,0.0
2019-10-31,0.006357832292249289,0.006357832292249289,0.0
2019-11-01,4.330523727850005e-05,4.100967986480701e-05,0.003060743218257389
2019-11-04,-0.0012367219173012923,-0.0012367219173012923,0.0
2019-11-05,-0.007898100589437063,-0.007898100589437063,0.0
2019-11-06,0.003751159442453857,0.003751159442453857,0.0
2019-11-07,-0.006538992838469677,-0.006538992838469677,0.0
2019-11-08,-0.005504691685697036,-0.005504691685697036,0.0
2019-11-11,-0.0002731648743118717,-0.0002731648743118717,0.0
2019-11-14,0.003959272509411863,0.003959272509411863,0.0
2019-11-15,-0.0004279182682596142,-0.0004279182682596142,0.0
2019-11-18,0.0012206594231875553,0.0012206594231875553,0.0
2019-11-19,0.0023801598803863703,0.0023801598803863703,0.0
2019-11-20,0.0030671110871416897,0.0030671110871416897,0.0
2019-11-21,-0.0034943299610144976,-0.0034943299610144976,0.0
2019-11-22,-0.002216300902379329,-0.002216300902379329,0.0
2019-11-25,0.003120571117881438,0.003120571117881438,0.0
2019-11-26,0.0011429861129916793,0.0011429861129916793,0.0
2019-11-27,-0.000792967976090651,-0.000792967976090651,0.0
2019-12-02,-0.0015853300697991,-0.001594181636922545,0.011802089497926826
2019-12-03,0.004636254268808264,0.004636254268808264,0.0
2019-12-04,-0.0003953691340227626,-0.0003953691340227626,0.0
2019-12-05,-0.0012685096023173066,-0.0012685096023173066,0.0
2019-12-06,-0.00705218634121443,-0.00705218634121443,0.0
2019-12-09,0.000618116436349572,0.000618116436349572,0.0
2019-12-10,-0.0016949857186674365,-0.0016949857186674365,0.0
2019-12-11,0.0051688836669282106,0.0051688836669282106,0.0
2019-12-12,-0.0021334015197280354,-0.0021334015197280354,0.0
2019-12-13,0.0066206122671690956,0.0066206122671690956,0.0
2019-12-16,-0.0024829291393505077,-0.0024829291393505077,0.0
2019-12-17,0.003012120976114616,0.003012120976114616,0.0
2019-12-18,0.0006856566313081404,0.0006856566313081404,0.0
2019-12-19,0.0021680734733526114,0.0021680734733526114,0.0
2019-12-20,0.0006684272965220039,0.0006684272965220039,0.0
2019-12-23,0.0004846890560255381,0.0004846890560255381,0.0
2019-12-24,0.0023922935621283332,0.0023922935621283332,0.0
2019-12-26,0.0007035959147722969,0.0007035959147722969,0.0
2019-12-27,0.0036003518975423897,0.0036003518975423897,0.0
2019-12-30,0.0007813442339079915,0.0007813442339079915,0.0
2019-12-31,-0.002929176085658377,-0.002929176085658377,0.0
2020-01-03,0.005102953692345167,0.005096936851734942,0.008022454146966396
2020-01-06,-0.0032219285790759675,-0.0032219285790759675,0.0
2020-01-07,0.002474864656747164,0.002474864656747164,0.0
2020-01-08,-0.004095024507078876,-0.004095024507078876,0.0
2020-01-09,0.0034425792451442407,0.0034425792451442407,0.0
2020-01-10,0.0038465350382543024,0.0038465350382543024,0.0
2020-01-13,-0.0009493416103252785,-0.0009493416103252785,0.0
2020-01-14,0.001239607600525943,0.001239607600525943,0.0
2020-01-15,0.0022702784999786103,0.0022702784999786103,0.0
2020-01-16,-0.0008862243249629667,-0.0008862243249629667,0.0
2020-01-17,0.0002656024704532859,0.0002656024704532859,0.0
2020-01-22,-0.0015475954204303497,-0.0015475954204303497,0.0
2020-01-23,0.003588698916470048,0.003588698916470048,0.0
2020-01-24,0.0049870518689759,0.0049870518689759,0.0
2020-01-27,0.0010041709482423386,0.0010041709482423386,0.0
2020-01-28,-0.00587184737696876,-0.00587184737696876,0.0
2020-01-29,0.005420120965794733,0.005420120965794733,0.0
2020-01-30,-0.0021995082707500562,-0.0021995082707500562,0.0
2020-01-31,0.0016278635098226407,0.0016278635098226407,0.0
2020-02-03,-0.009616002153313,-0.009623018812679561,0.009355545822082562
2020-02-04,0.0012223317856486363,0.0012223317856486363,0.0
2020-02-05,0.0020171493564553706,0.0020171493564553706,0.0
2020-02-06,0.003370507011423035,0.003370507011423035,0.0
2020-02-07,0.001345483773392275,0.001345483773392275,0.0
2020-02-10,-0.00037745347129910785,-0.00037745347129910785,0.0
2020-02-11,0.00019010298242430322,0.00019010298242430322,0.0
2020-02-12,0.0014733756672377163,0.0014733756672377163,0.0
2020-02-13,0.001422507060060516,0.001422507060060516,0.0
2020-02-14,0.0004901278211165376,0.0004901278211165376,0.0
2020-02-19,0.005598537512818463,0.005598537512818463,0.0
2020-02-20,0.001049390818579455,0.001049390818579455,0.0
2020-02-25,-0.005991664572852299,-0.005991664572852299,0.0
2020-02-26,-0.002177814417985834,-0.002177814417985834,0.0
2020-02-27,0.00037701995439626577,0.00037701995439626577,0.0
2020-02-28,-0.021207658227138618,-0.021207658227138618,0.0
2020-03-02,-0.0004501999201217663,-0.0004595742009878258,0.012499041154746038
2020-03-03,0.01926710026849455,0.01926710026849455,0.0
2020-03-04,-0.0016633559601760247,-0.0016633559601760247,0.0
2020-03-05,0.01072407445652842,0.01072407445652842,0.0
2020-03-06,-0.004729168394657814,-0.004729168394657814,0.0
2020-03-09,-0.01247516569646436,-0.01247516569646436,0.0
2020-03-12,-0.04072861215455147,-0.04072861215455147,0.0
2020-03-13,-0.0022710389060156813,-0.0022710389060156813,0.0
2020-03-16,-0.018738555927308585,-0.018738555927308585,0.0
2020-03-17,-0.012054643582898584,-0.012054643582898584,0.0
2020-03-18,-0.028302303414227795,-0.028302303414227795,0.0
2020-03-19,-0.012261268529681806,-0.012261268529681806,0.0
2020-03-20,0.030045985889195118,0.030045985889195118,0.0
2020-03-23,-0.01905173803533054,-0.01905173803533054,0.0
2020-03-24,0.020868838332231604,0.020868838332231604,0.0
2020-03-25,0.010641549648148433,0.010641549648148433,0.0
2020-03-26,0.015414105003338816,0.015414105003338816,0.0
2020-03-27,0.0009031962351446607,0.0009031962351446607,0.0
2020-03-30,-0.009303127859687033,-0.009303127859687033,0.0
2020-03-31,-0.0018180970554760429,-0.0018180970554760429,0.0
2020-04-01,-0.009117227724817798,-0.009169639245924087,0.06988202814171912
2020-04-08,-0.005056462913598431,-0.005056462913598431,0.0
2020-04-09,0.022576332662874246,0.022576332662874246,0.0
2020-04-13,0.0007690048892045117,0.0007690048892045117,0.0
2020-04-16,0.002494926669801871,0.002494926669801871,0.0
2020-04-17,0.0021609631028873455,0.0021609631028873455,0.0
2020-04-20,0.0030746642656027433,0.0030746642656027433,0.0
2020-04-21,-0.011644231804234037,-0.011644231804234037,0.0
2020-04-22,0.01297666147045637,0.01297666147045637,0.0
2020-04-23,0.008113380189257646,0.008113380189257646,0.0
2020-04-24,-0.0071205917887208715,-0.0071205917887208715,0.0
2020-04-27,0.000518919223522647,0.000518919223522647,0.0
2020-04-28,0.003418341484724993,0.003418341484724993,0.0
2020-04-29,0.007809659861408791,0.007809659861408791,0.0
2020-04-30,0.003763205488213946,0.003763205488213946,0.0
2020-05-05,-0.0020036838106781665,-0.0020147348089086053,0.014734664307251483
2020-05-06,-0.0032383650988341652,-0.0032383650988341652,0.0
2020-05-07,0.004490163332328827,0.004490163332328827,0.0
2020-05-08,-0.0012444766137118745,-0.0012444766137118745,0.0
2020-05-11,-0.003465579711846912,-0.003465579711846912,0.0
2020-05-12,0.0008511222149377103,0.0008511222149377103,0.0
2020-05-13,0.010557042535351092,0.010557042535351092,0.0
2020-05-14,-0.005237128392603354,-0.005237128392603354,0.0
2020-05-15,0.001474926314733858,0.001474926314733858,0.0
2020-05-18,-0.016050885846745962,-0.016050885846745962,0.0
2020-05-19,0.006258505037055667,0.006258505037055667,0.0
2020-05-20,0.007595495194452414,0.007595495194452414,0.0
2020-05-21,-0.0033872131590340377,-0.0033872131590340377,0.0
2020-05-22,0.00021054464794741337,0.00021054464794741337,0.0
2020-05-26,-0.006119040433617423,-0.006119040433617423,0.0
2020-05-27,0.011061049924593076,0.011061049924593076,0.0
2020-05-28,0.007019978582160265,0.007019978582160265,0.0
2020-05-29,0.006685855446107114,0.006685855446107114,0.0
2020-06-01,0.009845737301651466,0.009842407707920785,0.004439458307573835
2020-06-02,0.002530479861294166,0.002530479861294166,0.0
2020-06-03,-0.0052505927638935865,-0.0052505927638935865,0.0
2020-06-04,0.0009654603031372362,0.0009654603031372362,0.0
2020-06-05,-0.004458054630068366,-0.004458054630068366,0.0
2020-06-08,0.004695823035924827,0.004695823035924827,0.0
2020-06-09,8.219324568952442e-05,8.219324568952442e-05,0.0
2020-06-10,0.009472777739654423,0.009472777739654423,0.0
2020-06-11,-0.008618949157305534,-0.008618949157305534,0.0
2020-06-12,0.002166559260312193,0.002166559260312193,0.0
2020-06-15,-0.006373916101535088,-0.006373916101535088,0.0
2020-06-16,0.002607471280887356,0.002607471280887356,0.0
2020-06-17,8.934057391477888e-06,8.934057391477888e-06,0.0
2020-06-18,0.007267898512326232,0.007267898512326232,0.0
2020-06-19,0.008885567510516062,0.008885567510516062,0.0
2020-06-22,0.004075250553665693,0.004075250553665693,0.0
2020-06-23,0.008005753386336746,0.008005753386336746,0.0
2020-06-24,-0.006139083018873511,-0.006139083018873511,0.0
2020-06-25,-0.0006990145145691644,-0.0006990145145691644,0.0
2020-06-26,0.005504409841269915,0.005504409841269915,0.0
2020-06-29,-0.0018829065922219993,-0.0018829065922219993,0.0
2020-06-30,0.0005315442278492942,0.0005315442278492942,0.0
2020-07-01,0.002096878091672134,0.0020871929158863944,0.012913567714319202
2020-07-02,0.005029118731886963,0.005029118731886963,0.0
2020-07-07,0.004268802935564193,0.004268802935564193,0.0
2020-07-08,-0.0014236936790718057,-0.0014236936790718057,0.0
2020-07-09,0.0035188246287825185,0.0035188246287825185,0.0
2020-07-10,-0.0029338166857944877,-0.0029338166857944877,0.0
2020-07-13,0.001849072154954541,0.001849072154954541,0.0
2020-07-14,-0.004660423375109335,-0.004660423375109335,0.0
2020-07-15,0.0005268384010157502,0.0005268384010157502,0.0
2020-07-16,0.0008753801409837405,0.0008753801409837405,0.0
2020-07-17,0.007677496399685909,0.007677496399685909,0.0
2020-07-20,0.005543736104061911,0.005543736104061911,0.0
2020-07-21,0.008626517945615182,0.008626517945615182,0.0
2020-07-22,0.0042031859730941295,0.0042031859730941295,0.0
2020-07-23,0.005792479548984735,0.005792479548984735,0.0
2020-07-24,0.0020686643074934994,0.0020686643074934994,0.0
2020-07-27,0.0042290589584023115,0.0042290589584023115,0.0
2020-07-28,0.008678632030930925,0.008678632030930925,0.0
2020-07-29,4.6187016188439454e-05,4.6187016188439454e-05,0.0
2020-07-30,-0.005163847350219426,-0.005163847350219426,0.0
2020-07-31,0.0023389628266390406,0.0023389628266390406,0.0
2020-08-03,-0.005305250282092699,-0.005316180810142358,0.014574037399545131
2020-08-04,0.014314031594511004,0.014314031594511004,0.0
2020-08-05,0.00220573554221629,0.00220573554221629,0.0
2020-08-06,0.007779112790306268,0.007779112790306268,0.0
2020-08-07,-0.005758779423608634,-0.005758779423608634,0.0
2020-08-10,0.00014077113446154553,0.00014077113446154553,0.0
2020-08-11,-0.018185166361496575,-0.018185166361496575,0.0
2020-08-12,-0.002929439461482777,-0.002929439461482777,0.0
2020-08-13,0.006634141781830364,0.006634141781830364,0.0
2020-08-14,-0.00495668412732586,-0.00495668412732586,0.0
2020-08-17,0.009691785556257392,0.009691785556257392,0.0
2020-08-18,0.007678280938013229,0.007678280938013229,0.0
2020-08-19,-0.010449529789821435,-0.010449529789821435,0.0
2020-08-20,0.0002928104289822161,0.0002928104289822161,0.0
2020-08-21,-0.0006176007764932363,-0.0006176007764932363,0.0
2020-08-24,0.0005286808628422865,0.0005286808628422865,0.0
2020-08-25,-0.00022015768842189313,-0.00022015768842189313,0.0
2020-08-26,0.005993216115743751,0.005993216115743751,0.0
2020-08-27,-0.00467090993686059,-0.00467090993686059,0.0
2020-08-28,0.00877128419069229,0.00877128419069229,0.0
2020-08-31,-0.0067029166085070405,-0.0067029166085070405,0.0
2020-09-01,0.0039007117376738663,0.0038947919112583026,0.007893101887418486
2020-09-02,-0.00204708509016975,-0.00204708509016975,0.0
2020-09-03,-0.0024573304033189774,-0.0024573304033189774,0.0
2020-09-04,-0.006690604976329673,-0.006690604976329673,0.0
2020-09-09,0.001858242353221461,0.001858242353221461,0.0
2020-09-10,0.0043481202751020805,0.0043481202751020805,0.0
2020-09-11,0.0009483342046096894,0.0009483342046096894,0.0
2020-09-14,0.0015742377336697717,0.0015742377336697717,0.0
2020-09-15,0.0014250607069084677,0.0014250607069084677,0.0
2020-09-16,0.003153621323967011,0.003153621323967011,0.0
2020-09-17,-0.004296221508252222,-0.004296221508252222,0.0
2020-09-18,-0.00019481149498838847,-0.00019481149498838847,0.0
2020-09-21,-0.013632032459005081,-0.013632032459005081,0.0
2020-09-22,-0.004480846425590418,-0.004480846425590418,0.0
2020-09-23,-0.00781723922239001,-0.00781723922239001,0.0
2020-09-24,-0.008574221183972774,-0.008574221183972774,0.0
2020-09-25,0.0066729440051729256,0.0066729440051729256,0.0
2020-09-28,0.008478872726845377,0.008478872726845377,0.0
2020-09-29,0.0028252299284584744,0.0028252299284584744,0.0
2020-09-30,-0.002140150183415112,-0.002140150183415112,0.0
2020-10-01,0.008132163863281833,0.008126224561751402,0.007919068707241045
2020-10-06,0.0014269813334486766,0.0014269813334486766,0.0
2020-10-07,0.0011134589795459538,0.0011134589795459538,0.0
2020-10-08,0.0045406882833047115,0.0045406882833047115,0.0
2020-10-09,0.008044011380595736,0.008044011380595736,0.0
2020-10-12,-0.00012233967180801407,-0.00012233967180801407,0.0
2020-10-13,-0.004413242774358982,-0.004413242774358982,0.0
2020-10-14,0.0021714392402644865,0.0021714392402644865,0.0
2020-10-15,-0.007636079537338351,-0.007636079537338351,0.0
2020-10-16,0.0010345457282164034,0.0010345457282164034,0.0
2020-10-19,0.0028123911596768395,0.0028123911596768395,0.0
2020-10-20,0.0015601394251247875,0.0015601394251247875,0.0
2020-10-21,0.003217005747258238,0.003217005747258238,0.0
2020-10-22,-0.005583619534321882,-0.005583619534321882,0.0
2020-10-23,0.0010896516445339278,0.0010896516445339278,0.0
2020-10-26,-0.004029389898013773,-0.004029389898013773,0.0
2020-10-27,0.005112429724351291,0.005112429724351291,0.0
2020-10-28,-0.010029214952231044,-0.010029214952231044,0.0
2020-10-29,-0.004475418210429368,-0.004475418210429368,0.0
2020-10-30,-0.0004161492869851862,-0.0004161492869851862,0.0
2020-11-02,0.004556133180404167,0.004550391400054323,0.007655707133125689
2020-11-03,0.005237946198095374,0.005237946198095374,0.0
2020-11-04,0.005262153895594276,0.005262153895594276,0.0
2020-11-05,0.013437974682579823,0.013437974682579823,0.0
2020-11-06,0.003330799251770523,0.003330799251770523,0.0
2020-11-09,-0.012169481517919,-0.012169481517919,0.0
2020-11-10,0.0048858619141059845,0.0048858619141059845,0.0
2020-11-11,0.002391895761156684,0.002391895761156684,0.0
2020-11-12,0.00214840630747585,0.00214840630747585,0.0
2020-11-13,0.0025723631203238384,0.0025723631203238384,0.0
2020-11-18,-0.0002183417116160855,-0.0002183417116160855,0.0
2020-11-19,-0.004851328122107582,-0.004851328122107582,0.0
2020-11-20,0.003940832845387468,0.003940832845387468,0.0
2020-11-23,-0.0052309998458489404,-0.0052309998458489404,0.0
2020-11-24,-0.0019025633809005953,-0.0019025633809005953,0.0
2020-11-25,-0.005515259280292842,-0.005515259280292842,0.0
2020-12-02,0.0020596155978837667,0.0020418133656762913,0.023736309609967393
2020-12-03,0.00402782006378694,0.00402782006378694,0.0
2020-12-04,0.0008764815615366978,0.0008764815615366978,0.0
2020-12-07,0.008428883712334717,0.008428883712334717,0.0
2020-12-08,0.002433633200051719,0.002433633200051719,0.0
2020-12-09,-0.002903479907348782,-0.002903479907348782,0.0
2020-12-10,-0.0011721322124815686,-0.0011721322124815686,0.0
2020-12-11,0.002166795232126562,0.002166795232126562,0.0
2020-12-14,-0.0009212348293785126,-0.0009212348293785126,0.0
2020-12-15,0.004510917654938613,0.004510917654938613,0.0
2020-12-16,0.0044166749828979685,0.0044166749828979685,0.0
2020-12-17,0.004699138704330753,0.004699138704330753,0.0
2020-12-18,-0.00035224707527520955,-0.00035224707527520955,0.0
2020-12-21,-0.011703325553052677,-0.011703325553052677,0.0
2020-12-22,0.0012896598761337427,0.0012896598761337427,0.0
2020-12-23,0.004886469027909452,0.004886469027909452,0.0
2020-12-24,0.005460244375503894,0.005460244375503894,0.0
2020-12-28,0.0018548122954268294,0.0018548122954268294,0.0
2020-12-29,0.0026211865571557423,0.0026211865571557423,0.0
2020-12-30,0.0039757179780572464,0.0039757179780572464,0.0
2020-12-31,0.0014534021918002893,0.0014534021918002893,0.0
2021-01-05,0.0017741041954654664,0.0017655067614783379,0.01146324531617135
2021-01-06,-0.00866777326572236,-0.00866777326572236,0.0
2021-01-07,-0.0021624490583844235,-0.0021624490583844235,0.0
2021-01-08,-0.007519741300099167,-0.007519741300099167,0.0
2021-01-11,0.0019989186789507426,0.0019989186789507426,0.0
2021-01-12,0.0038912035452219316,0.0038912035452219316,0.0
2021-01-13,-0.00020517799031471103,-0.00020517799031471103,0.0
2021-01-14,-0.00019317734197898912,-0.00019317734197898912,0.0
2021-01-15,-0.006980877839717879,-0.006980877839717879,0.0
2021-01-20,0.008218888819351478,0.008218888819351478,0.0
2021-01-21,-0.0019673691704908927,-0.0019673691704908927,0.0
2021-01-22,-0.007254392505725473,-0.007254392505725473,0.0
2021-01-25,-0.0015593518821375746,-0.0015593518821375746,0.0
2021-01-28,-0.004257910536453476,-0.004257910536453476,0.0
2021-01-29,-0.0052399507589436,-0.0052399507589436,0.0
2021-02-01,0.018974181387563363,0.018967981718447127,0.008266225488315015
2021-02-02,0.0038056170032053924,0.0038056170032053924,0.0
2021-02-03,0.002086221430748615,0.002086221430748615,0.0
2021-02-04,-0.004647481712469468,-0.004647481712469468,0.0
2021-02-05,0.0031196791417597036,0.0031196791417597036,0.0
2021-02-08,0.00788677839401769,0.00788677839401769,0.0
2021-02-09,0.0011376552363432945,0.0011376552363432945,0.0
2021-02-10,0.0019248970340914704,0.0019248970340914704,0.0
2021-02-11,-0.001482635267127026,-0.001482635267127026,0.0
2021-02-12,-0.002272521092568123,-0.002272521092568123,0.0
2021-02-17,-0.005889838396659764,-0.005889838396659764,0.0
2021-02-18,-0.002174856621837749,-0.002174856621837749,0.0
2021-02-19,-0.003243735902248393,-0.003243735902248393,0.0
2021-02-22,-0.003093870802812597,-0.003093870802812597,0.0
2021-02-23,0.00026090166086454745,0.00026090166086454745,0.0
2021-02-24,0.005782306992402004,0.005782306992402004,0.0
2021-02-25,-0.007756384185888439,-0.007756384185888439,0.0
2021-02-26,-0.018768255885211173,-0.018768255885211173,0.0
2021-03-01,0.004337520337225933,0.004323183434795499,0.019115869907245592
2021-03-02,0.005981423100460927,0.005981423100460927,0.0
2021-03-03,0.0018899942115481853,0.0018899942115481853,0.0
2021-03-04,-0.008612683426167106,-0.008612683426167106,0.0
2021-03-05,-0.0035296610126851666,-0.0035296610126851666,0.0
2021-03-08,-0.004300629840154661,-0.004300629840154661,0.0
2021-03-09,0.011675350550429653,0.011675350550429653,0.0
2021-03-10,0.004092307399044105,0.004092307399044105,0.0
2021-03-15,-0.0004843216063707482,-0.0004843216063707482,0.0
2021-03-16,-0.00018810319962981123,-0.00018810319962981123,0.0
2021-03-17,-0.00254849791233429,-0.00254849791233429,0.0
2021-03-18,-0.00777249194180781,-0.00777249194180781,0.0
2021-03-19,0.0054746289829852935,0.0054746289829852935,0.0
2021-03-22,0.000399100321803189,0.000399100321803189,0.0
2021-03-23,0.0009623045459850254,0.0009623045459850254,0.0
2021-03-24,-0.0045761835641773725,-0.0045761835641773725,0.0
2021-03-25,-0.006871395896832654,-0.006871395896832654,0.0
2021-03-26,0.004052684721380609,0.004052684721380609,0.0
2021-03-31,0.001058672995170305,0.001058672995170305,0.0
2021-04-01,0.0096408465245773,0.009636474054602981,0.005829959965757747
2021-04-05,-0.0062599681989252455,-0.0062599681989252455,0.0
2021-04-06,0.005335847177997497,0.005335847177997497,0.0
2021-04-07,0.0018780347955164312,0.0018780347955164312,0.0
2021-04-08,0.005953583839891843,0.005953583839891843,0.0
2021-04-09,-0.004294109838429749,-0.004294109838429749,0.0
2021-04-12,-0.014204941561374947,-0.014204941561374947,0.0
2021-04-13,0.008158696645593235,0.008158696645593235,0.0
2021-04-16,0.001948821545423328,0.001948821545423328,0.0
2021-04-19,-0.007123145422471774,-0.007123145422471774,0.0
2021-04-20,0.0007849492646472275,0.0007849492646472275,0.0
2021-04-23,-0.003204543119775968,-0.003204543119775968,0.0
2021-04-26,0.003753553355709816,0.003753553355709816,0.0
2021-04-27,0.0015486051232489442,0.0015486051232489442,0.0
2021-04-28,0.006119049763311658,0.006119049763311658,0.0
2021-04-29,-0.0013152216914590102,-0.0013152216914590102,0.0
2021-04-30,-0.0067541243364454984,-0.0067541243364454984,0.0
2021-05-03,0.004934896709364933,0.004929899934687265,0.006662366236890871
2021-05-04,-0.00517058185413595,-0.00517058185413595,0.0
2021-05-05,0.004549021888453676,0.004549021888453676,0.0
2021-05-06,0.008105917563461018,0.008105917563461018,0.0
2021-05-07,0.005347684546355739,0.005347684546355739,0.0
2021-05-10,0.0030212589853458975,0.0030212589853458975,0.0
2021-05-11,-0.002536014030837727,-0.002536014030837727,0.0
2021-05-12,-0.008447244283711368,-0.008447244283711368,0.0
2021-05-17,0.009107542910596872,0.009107542910596872,0.0
2021-05-18,0.0047753761862030985,0.0047753761862030985,0.0
2021-05-19,-0.0024758264533027304,-0.0024758264533027304,0.0
2021-05-20,0.00010561706476413769,0.00010561706476413769,0.0
2021-05-21,0.0062263879304019255,0.0062263879304019255,0.0
2021-05-24,0.0014060454613151353,0.0014060454613151353,0.0
2021-05-25,0.0044953526971704925,0.0044953526971704925,0.0
2021-05-26,0.0010827678036597688,0.0010827678036597688,0.0
2021-05-27,0.00037224635670746474,0.00037224635670746474,0.0
2021-05-28,0.0034006453383952106,0.0034006453383952106,0.0
2021-06-02,0.0020340652427540905,0.002024402526626172,0.012883621503890885
2021-06-03,-0.00502539578310783,-0.00502539578310783,0.0
2021-06-04,0.0049381492806663315,0.0049381492806663315,0.0
2021-06-07,0.002796860335980989,0.002796860335980989,0.0
2021-06-08,-0.0003165937042474581,-0.0003165937042474581,0.0
2021-06-09,-0.001830489150346578,-0.001830489150346578,0.0
2021-06-10,0.004786126376240418,0.004786126376240418,0.0
2021-06-11,-0.002926390079592126,-0.002926390079592126,0.0
2021-06-14,-0.0027070475298163117,-0.0027070475298163117,0.0
2021-06-15,4.578642859413653e-05,4.578642859413653e-05,0.0
2021-06-16,-0.010031137644065453,-0.010031137644065453,0.0
2021-06-17,-0.010532676715416318,-0.010532676715416318,0.0
2021-06-18,-9.195676259904765e-06,-9.195676259904765e-06,0.0
2021-06-21,0.0041028471890036675,0.0041028471890036675,0.0
2021-06-22,-0.00014193328699215976,-0.00014193328699215976,0.0
2021-06-23,-0.002759243200124959,-0.002759243200124959,0.0
2021-06-24,0.0019970254156072135,0.0019970254156072135,0.0
2021-06-25,0.0018484007903235584,0.0018484007903235584,0.0
2021-06-28,5.194206195883258e-05,5.194206195883258e-05,0.0
2021-06-29,-0.004601673081279024,-0.004601673081279024,0.0
2021-06-30,0.0014678524272891487,0.0014678524272891487,0.0
2021-07-01,2.4139123673866575e-05,1.0603706722550298e-05,0.018047222601755036
2021-07-02,0.0042907658611842665,0.0042907658611842665,0.0
2021-07-07,0.00353072905833422,0.00353072905833422,0.0
2021-07-08,-0.002552753740350999,-0.002552753740350999,0.0
2021-07-09,-0.0013761868168564039,-0.0013761868168564039,0.0
2021-07-12,-0.000532224542433163,-0.000532224542433163,0.0
2021-07-13,0.0019116935422631,0.0019116935422631,0.0
2021-07-14,0.005902817769898895,0.005902817769898895,0.0
2021-07-15,0.0029091804089235417,0.0029091804089235417,0.0
2021-07-16,-0.0033668997883367874,-0.0033668997883367874,0.0
2021-07-19,-0.00035796265005257175,-0.00035796265005257175,0.0
2021-07-20,-0.003381328524345818,-0.003381328524345818,0.0
2021-07-23,-0.0009122505018674497,-0.0009122505018674497,0.0
2021-07-26,-0.0016822863380814843,-0.0016822863380814843,0.0
2021-07-27,0.00037049695244889715,0.00037049695244889715,0.0
2021-07-28,0.0012109378738240798,0.0012109378738240798,0.0
2021-07-29,0.004120199297998389,0.004120199297998389,0.0
2021-07-30,-0.002068106389721443,-0.002068106389721443,0.0
2021-08-02,0.0036185065995114,0.0036126141446524837,0.007856606478554795
2021-08-03,0.004985003721390644,0.004985003721390644,0.0
2021-08-04,0.002667215642077148,0.002667215642077148,0.0
2021-08-05,-0.001762395900895828,-0.001762395900895828,0.0
2021-08-06,-0.011434914808149768,-0.011434914808149768,0.0
2021-08-09,-0.006078823546880149,-0.006078823546880149,0.0
2021-08-10,-6.482343381128789e-05,-6.482343381128789e-05,0.0
2021-08-11,0.004797861826087909,0.004797861826087909,0.0
2021-08-12,0.001475718935181115,0.001475718935181115,0.0
2021-08-13,0.009954060383220364,0.009954060383220364,0.0
2021-08-16,0.0030525430396998034,0.0030525430396998034,0.0
2021-08-17,0.00042261768338266125,0.00042261768338266125,0.0
2021-08-18,-0.0008736576103613196,-0.0008736576103613196,0.0
2021-08-23,0.004976235782624424,0.004976235782624424,0.0
2021-08-24,0.0016284535797487492,0.0016284535797487492,0.0
2021-08-25,-0.003340659449015313,-0.003340659449015313,0.0
2021-08-26,0.00041545228564481056,0.00041545228564481056,0.0
2021-08-27,0.007337001377894324,0.007337001377894324,0.0
2021-08-30,0.0036911501329391426,0.0036911501329391426,0.0
2021-08-31,0.00419460436347703,0.00419460436347703,0.0
2021-09-01,-0.0009283953292751454,-0.0009440069472292136,0.02081549060542437
2021-09-02,0.00257367512046352,0.00257367512046352,0.0
2021-09-03,0.00446681692999153,0.00446681692999153,0.0
2021-09-08,-9.564160684744849e-05,-9.564160684744849e-05,0.0
2021-09-09,0.0027104736025626826,0.0027104736025626826,0.0
2021-09-14,0.00386385068231595,0.00386385068231595,0.0
2021-09-15,0.00013080381583299833,0.00013080381583299833,0.0
2021-09-16,-0.0065597393499167,-0.0065597393499167,0.0
2021-09-17,-0.002345384153326675,-0.002345384153326675,0.0
2021-09-20,0.00034616754724518133,0.00034616754724518133,0.0
2021-09-21,0.0051697381985347434,0.0051697381985347434,0.0
2021-09-22,-0.001218233247999897,-0.001218233247999897,0.0
2021-09-23,-0.0015654646476823061,-0.0015654646476823061,0.0
2021-09-24,-0.000832772037627288,-0.000832772037627288,0.0
2021-09-27,-0.00016964047199490964,-0.00016964047199490964,0.0
2021-09-28,-0.0065063873492664185,-0.0065063873492664185,0.0
2021-09-29,-0.0018513744572254893,-0.0018513744572254893,0.0
2021-09-30,0.004364820000950041,0.004364820000950041,0.0
2021-10-01,0.000475039641768433,0.0004687823078757174,0.00834311185695416
2021-10-04,0.004150224578668395,0.004150224578668395,0.0
2021-10-05,-0.00013945536581691723,-0.00013945536581691723,0.0
2021-10-06,-0.002362700942875679,-0.002362700942875679,0.0
2021-10-07,-0.00038437694475971124,-0.00038437694475971124,0.0
2021-10-08,0.0013926280215385064,0.0013926280215385064,0.0
2021-10-11,-0.0004812030492431162,-0.0004812030492431162,0.0
2021-10-12,0.0038593553669318804,0.0038593553669318804,0.0
2021-10-13,0.009664975965899018,0.009664975965899018,0.0
2021-10-14,0.00486096432101156,0.00486096432101156,0.0
2021-10-19,-0.0011741088802033834,-0.0011741088802033834,0.0
2021-10-20,-2.8831522475286782e-05,-2.8831522475286782e-05,0.0
2021-10-21,-0.0027949087836851173,-0.0027949087836851173,0.0
2021-10-22,0.001727903990968752,0.001727903990968752,0.0
2021-10-25,0.00293884380408604,0.00293884380408604,0.0
2021-10-26,0.00047755167191647113,0.00047755167191647113,0.0
2021-10-27,0.001650654272867138,0.001650654272867138,0.0
2021-10-28,-0.007482656773217422,-0.007482656773217422,0.0
2021-10-29,-0.006222516019321661,-0.006222516019321661,0.0
2021-11-01,0.006540937050270759,0.006535161707925851,0.007700456459876992
2021-11-02,-0.0006711618993892574,-0.0006711618993892574,0.0
2021-11-03,-0.004941053656017989,-0.004941053656017989,0.0
2021-11-04,0.007179987937065904,0.007179987937065904,0.0
2021-11-09,0.0027086195443451074,0.0027086195443451074,0.0
2021-11-10,0.00024024465398216107,0.00024024465398216107,0.0
2021-11-11,-0.0018503857685494918,-0.0018503857685494918,0.0
2021-11-12,0.00555256300460227,0.00555256300460227,0.0
2021-11-15,-0.0016917558900111126,-0.0016917558900111126,0.0
2021-11-16,-0.004783479605732958,-0.004783479605732958,0.0
2021-11-17,0.0023779866113888,0.0023779866113888,0.0
2021-11-18,-0.0033762078409088946,-0.0033762078409088946,0.0
2021-11-23,-0.0026774213056807686,-0.0026774213056807686,0.0
2021-11-24,-0.0009879182396482632,-0.0009879182396482632,0.0
2021-11-29,-0.000679238641146844,-0.000679238641146844,0.0
2021-11-30,-0.0016771667873359936,-0.0016771667873359936,0.0
2021-12-01,0.005540298449104066,0.005538480024348438,0.0024245663408369866
2021-12-02,0.0019859608215171826,0.0019859608215171826,0.0
2021-12-03,0.0006898559534077844,0.0006898559534077844,0.0
2021-12-06,-0.008063725877351548,-0.008063725877351548,0.0
2021-12-07,0.0050640350882347135,0.0050640350882347135,0.0
2021-12-08,0.0047895300244684596,0.0047895300244684596,0.0
2021-12-09,-0.0003006422117200101,-0.0003006422117200101,0.0
2021-12-10,0.0015136120533518743,0.0015136120533518743,0.0
2021-12-13,-0.000387745398782076,-0.000387745398782076,0.0
2021-12-14,-0.004535348171627352,-0.004535348171627352,0.0
2021-12-15,-0.0010926207138929136,-0.0010926207138929136,0.0
2021-12-16,0.0054916760926731175,0.0054916760926731175,0.0
2021-12-17,-0.005124475605571854,-0.005124475605571854,0.0
2021-12-20,-0.009028319090758387,-0.009028319090758387,0.0
2021-12-21,0.0015929898180467854,0.0015929898180467854,0.0
2021-12-22,0.0070772794217537,0.0070772794217537,0.0
2021-12-23,0.0023485718790116025,0.0023485718790116025,0.0
2021-12-28,0.0013301626662574494,0.0013301626662574494,0.0
2021-12-29,-0.002171425641924288,-0.002171425641924288,0.0
2021-12-30,0.003304564491168337,0.003304564491168337,0.0
2021-12-31,0.004827124191886135,0.004827124191886135,0.0
2022-01-03,-0.0031064125791762666,-0.0031114480142944725,0.006713913490941331
2022-01-04,0.0056832308101871405,0.0056832308101871405,0.0
2022-01-05,-9.294047699084107e-05,-9.294047699084107e-05,0.0
2022-01-06,-0.008313953768857277,-0.008313953768857277,0.0
2022-01-07,0.0016941837241845588,0.0016941837241845588,0.0
2022-01-10,0.004565562467246989,0.004565562467246989,0.0
2022-01-11,0.005718617498006265,0.005718617498006265,0.0
2022-01-12,0.0039041581335375404,0.0039041581335375404,0.0
2022-01-13,0.0007732669466566893,0.0007732669466566893,0.0
2022-01-14,-0.00322954405118835,-0.00322954405118835,0.0
2022-01-19,0.002582314454569085,0.002582314454569085,0.0
2022-01-20,-0.003631759117050749,-0.003631759117050749,0.0
2022-01-21,-0.001906878282300928,-0.001906878282300928,0.0
2022-01-24,-0.007606768400310677,-0.007606768400310677,0.0
2022-01-25,0.003126322840616536,0.003126322840616536,0.0
2022-01-28,-0.00040620664754567186,-0.00040620664754567186,0.0
2022-01-31,0.006601234129366408,0.006601234129366408,0.0
2022-02-01,0.0043518948098970325,0.004347642986376434,0.0056690980274648195
2022-02-02,0.005745942363892716,0.005745942363892716,0.0
2022-02-03,-0.006091360297571167,-0.006091360297571167,0.0
2022-02-04,-0.002876874924339221,-0.002876874924339221,0.0
2022-02-07,-0.0033062722437242776,-0.0033062722437242776,0.0
2022-02-08,0.000982753733828742,0.000982753733828742,0.0
2022-02-09,0.005364179647093347,0.005364179647093347,0.0
2022-02-10,-0.001603528715838855,-0.001603528715838855,0.0
2022-02-11,0.005262351883783138,0.005262351883783138,0.0
2022-02-14,-0.01074700101553914,-0.01074700101553914,0.0
2022-02-15,0.005371678149303488,0.005371678149303488,0.0
2022-02-16,0.0036022485371978224,0.0036022485371978224,0.0
2022-02-17,0.0060757811567235115,0.0060757811567235115,0.0
2022-02-18,0.00026052450602374676,0.00026052450602374676,0.0
2022-02-23,-0.000698014196570962,-0.000698014196570962,0.0
2022-02-24,-0.017517839411569838,-0.017517839411569838,0.0
2022-02-25,0.006637485723561013,0.006637485723561013,0.0
2022-02-28,0.009923833335092268,0.009923833335092268,0.0
2022-03-03,0.001238634130327933,0.001226740647474329,0.015857977138138774
2022-03-04,0.003487816675796872,0.003487816675796872,0.0
2022-03-07,-0.004156817100670917,-0.004156817100670917,0.0
2022-03-08,0.01013396668807503,0.01013396668807503,0.0
2022-03-09,-0.006120517418635565,-0.006120517418635565,0.0
2022-03-10,0.004491581142670706,0.004491581142670706,0.0
2022-03-11,-0.001796932190265764,-0.001796932190265764,0.0
2022-03-14,-0.004593847167196301,-0.004593847167196301,0.0
2022-03-15,-0.01070188927484758,-0.01070188927484758,0.0
2022-03-16,0.007888844361044891,0.007888844361044891,0.0
2022-03-17,0.007192309037354206,0.007192309037354206,0.0
2022-03-22,-0.00024053325819733707,-0.00024053325819733707,0.0
2022-03-23,0.00522908451154544,0.00522908451154544,0.0
2022-03-24,0.00015462845589463804,0.00015462845589463804,0.0
2022-03-25,-0.00607617326286763,-0.00607617326286763,0.0
2022-03-28,-0.004069569128908573,-0.004069569128908573,0.0
2022-03-29,0.0038236921149261286,0.0038236921149261286,0.0
2022-03-30,0.007367423903530867,0.007367423903530867,0.0
2022-03-31,5.3901876088420225e-05,5.3901876088420225e-05,0.0
2022-04-01,-0.0004032121223301664,-0.0004149268446883377,0.015619629810895042
2022-04-04,0.008617953969291874,0.008617953969291874,0.0
2022-04-05,-0.007831084524485665,-0.007831084524485665,0.0
2022-04-06,-0.0032449308369150603,-0.0032449308369150603,0.0
2022-04-07,-0.0027866360543215758,-0.0027866360543215758,0.0
2022-04-08,0.003198325492714368,0.003198325492714368,0.0
2022-04-11,-0.0019984857140225238,-0.0019984857140225238,0.0
2022-04-12,0.001357184624810908,0.001357184624810908,0.0
2022-04-13,0.001292737817503001,0.001292737817503001,0.0
2022-04-19,-0.011553241142964863,-0.011553241142964863,0.0
2022-04-20,0.007680133639265682,0.007680133639265682,0.0
2022-04-21,0.0019471985852527465,0.0019471985852527465,0.0
2022-04-22,-0.007463554391187577,-0.007463554391187577,0.0
2022-04-25,-0.008317022601714075,-0.008317022601714075,0.0
2022-04-26,0.007561643476349018,0.007561643476349018,0.0
2022-04-27,-0.00756631690003073,-0.00756631690003073,0.0
2022-04-28,0.005366621865024034,0.005366621865024034,0.0
2022-04-29,-0.00461163734991076,-0.00461163734991076,0.0
2022-05-02,-0.009383476050496734,-0.009387105991980572,0.004839921978450928
2022-05-05,-0.004525584248062346,-0.004525584248062346,0.0
2022-05-06,-0.00688845229941462,-0.00688845229941462,0.0
2022-05-09,-0.0046385697976152685,-0.0046385697976152685,0.0
2022-05-10,-0.0029435461431660407,-0.0029435461431660407,0.0
2022-05-11,0.003250014759773116,0.003250014759773116,0.0
2022-05-12,-0.011401220870667552,-0.011401220870667552,0.0
2022-05-13,-0.005018033395301301,-0.005018033395301301,0.0
2022-05-16,0.005796487520782356,0.005796487520782356,0.0
2022-05-17,0.0038238103371697916,0.0038238103371697916,0.0
2022-05-18,0.0022008998918076985,0.0022008998918076985,0.0
2022-05-19,-0.003006729017315388,-0.003006729017315388,0.0
2022-05-20,0.01109684797278298,0.01109684797278298,0.0
2022-05-23,-0.0016121531883369286,-0.0016121531883369286,0.0
2022-05-24,0.0035567022223137656,0.0035567022223137656,0.0
2022-05-25,-0.00333362826001001,-0.00333362826001001,0.0
2022-05-26,0.002155012780615081,0.002155012780615081,0.0
2022-05-27,0.0043515190693599855,0.0043515190693599855,0.0
2022-06-01,-0.0010103852183934,-0.00101685355387429,0.008624447307853195
2022-06-02,0.006703642450499929,0.006703642450499929,0.0
2022-06-03,-0.004962727195723018,-0.004962727195723018,0.0
2022-06-06,-0.004273481166247211,-0.004273481166247211,0.0
2022-06-07,0.0004038032956387042,0.0004038032956387042,0.0
2022-06-08,-0.002760294903459662,-0.002760294903459662,0.0
2022-06-09,0.0010825725309147644,0.0010825725309147644,0.0
2022-06-10,-0.004398800899094402,-0.004398800899094402,0.0
2022-06-13,-0.023854374491085566,-0.023854374491085566,0.0
2022-06-14,-0.0062764042891218135,-0.0062764042891218135,0.0
2022-06-15,0.008162236733101574,0.008162236733101574,0.0
2022-06-16,-0.0009526886685736164,-0.0009526886685736164,0.0
2022-06-17,-0.004161797502547262,-0.004161797502547262,0.0
2022-06-22,0.0009636364747679076,0.0009636364747679076,0.0
2022-06-23,0.0026834548188789985,0.0026834548188789985,0.0
2022-06-24,0.0013278319131384757,0.0013278319131384757,0.0
2022-06-27,0.00038193691355639664,0.00038193691355639664,0.0
2022-06-28,0.00023779417797843884,0.00023779417797843884,0.0
2022-06-29,0.0014022635700599525,0.0014022635700599525,0.0
2022-06-30,0.00013741383035331572,0.00013741383035331572,0.0
2022-07-01,0.002680754891798333,0.00267009952235035,0.014207159263977337
2022-07-06,-0.00443512969065498,-0.00443512969065498,0.0
2022-07-07,0.0011273930059342257,0.0011273930059342257,0.0
2022-07-08,-3.98861707855142e-05,-3.98861707855142e-05,0.0
2022-07-11,0.0007309097836682201,0.0007309097836682201,0.0
2022-07-12,-0.003770166011922063,-0.003770166011922063,0.0
2022-07-13,0.0010499010849138214,0.0010499010849138214,0.0
2022-07-14,-0.007087460207930581,-0.007087460207930581,0.0
2022-07-15,0.002834067677209902,0.002834067677209902,0.0
2022-07-18,0.004145556051760861,0.004145556051760861,0.0
2022-07-19,0.0005402342714957223,0.0005402342714957223,0.0
2022-07-20,0.0004021832972984219,0.0004021832972984219,0.0
2022-07-21,0.0100146973173535,0.0100146973173535,0.0
2022-07-22,0.00695865686921504,0.00695865686921504,0.0
2022-07-25,-0.003901701663181612,-0.003901701663181612,0.0
2022-07-26,-0.003326119580798418,-0.003326119580798418,0.0
2022-07-27,0.007209321005336284,0.007209321005336284,0.0
2022-07-28,0.013092396433161192,0.013092396433161192,0.0
2022-07-29,0.005673745812288087,0.005673745812288087,0.0
2022-08-01,0.0073408961380411674,0.007329226006570752,0.015560175293887174
2022-08-02,-0.006511759157791108,-0.006511759157791108,0.0
2022-08-03,0.002999938513484933,0.002999938513484933,0.0
2022-08-04,0.007011972598119956,0.007011972598119956,0.0
2022-08-05,-0.00830949806380858,-0.00830949806380858,0.0
2022-08-08,0.007213962539261143,0.007213962539261143,0.0
2022-08-11,-0.0006866264875489319,-0.0006866264875489319,0.0
2022-08-12,0.005106512254543533,0.005106512254543533,0.0
2022-08-17,-0.0021250570183526042,-0.0021250570183526042,0.0
2022-08-18,-1.60936349142175e-05,-1.60936349142175e-05,0.0
2022-08-19,-0.009049426871595847,-0.009049426871595847,0.0
2022-08-22,-0.008838899724195734,-0.008838899724195734,0.0
2022-08-23,0.0032125729903780707,0.0032125729903780707,0.0
2022-08-24,0.0004355435306823116,0.0004355435306823116,0.0
2022-08-25,0.0014953048062937603,0.0014953048062937603,0.0
2022-08-26,-0.003806421478222842,-0.003806421478222842,0.0
2022-08-29,-0.006445821708514642,-0.006445821708514642,0.0
2022-08-30,0.005669244196606501,0.005669244196606501,0.0
2022-09-02,0.004720620327484333,0.004712606411069337,0.010685221886661767
2022-09-07,0.004973810957502052,0.004973810957502052,0.0
2022-09-08,-1.9683052667068543e-05,-1.9683052667068543e-05,0.0
2022-09-09,0.002441600919454355,0.002441600919454355,0.0
2022-09-12,0.0028097998108774303,0.0028097998108774303,0.0
2022-09-13,-0.0037898922537195076,-0.0037898922537195076,0.0
2022-09-14,-0.002356583409513891,-0.002356583409513891,0.0
2022-09-15,-0.009779043746191592,-0.009779043746191592,0.0
2022-09-16,-0.0045195058124875434,-0.0045195058124875434,0.0
2022-09-19,0.0010353016391146295,0.0010353016391146295,0.0
2022-09-20,-0.00031888885894308883,-0.00031888885894308883,0.0
2022-09-21,0.0009898827158899256,0.0009898827158899256,0.0
2022-09-22,-0.006921484265351555,-0.006921484265351555,0.0
2022-09-23,-0.011233656496964704,-0.011233656496964704,0.0
2022-09-26,-0.015535959486242807,-0.015535959486242807,0.0
2022-09-27,-0.0017751606925290972,-0.0017751606925290972,0.0
2022-09-28,0.011338511111288316,0.011338511111288316,0.0
2022-09-29,-0.0024159345365967707,-0.0024159345365967707,0.0
2022-09-30,0.004481380237765767,0.004481380237765767,0.0
2022-10-03,0.007878031280753532,0.007875327550180505,0.003604974097369512
2022-10-04,0.01290903567441366,0.01290903567441366,0.0
2022-10-07,-0.0056946618795676845,-0.0056946618795676845,0.0
2022-10-10,-0.008533682856515387,-0.008533682856515387,0.0
2022-10-11,-0.00485637450226117,-0.00485637450226117,0.0
2022-10-12,0.005588871364069,0.005588871364069,0.0
2022-10-13,-0.005852900510460596,-0.005852900510460596,0.0
2022-10-14,-0.0027728439080448213,-0.0027728439080448213,0.0
2022-10-17,0.003751803375149393,0.003751803375149393,0.0
2022-10-18,0.004935337494347023,0.004935337494347023,0.0
2022-10-19,-0.007466788081613748,-0.007466788081613748,0.0
2022-10-20,-0.0020000376029865887,-0.0020000376029865887,0.0
2022-10-21,0.006798332659372488,0.006798332659372488,0.0
2022-10-24,0.0014706871237155398,0.0014706871237155398,0.0
2022-10-25,0.003360964408148721,0.003360964408148721,0.0
2022-10-28,-0.004138699283289921,-0.004138699283289921,0.0
2022-10-31,0.00011894341068848145,0.00011894341068848145,0.0
2022-11-01,0.0057797268606826,0.005769923955725612,0.013070539942650089
2022-11-02,-0.00405882304178767,-0.00405882304178767,0.0
2022-11-03,-0.003281673784138726,-0.003281673784138726,0.0
2022-11-04,0.010569677263533896,0.010569677263533896,0.0
2022-11-07,-0.0009423861818185636,-0.0009423861818185636,0.0
2022-11-10,0.015041462689393686,0.015041462689393686,0.0
2022-11-11,0.007358050521760474,0.007358050521760474,0.0
2022-11-14,-0.00040107311478850406,-0.00040107311478850406,0.0
2022-11-15,0.004948503758978312,0.004948503758978312,0.0
2022-11-16,0.0017132795869074064,0.0017132795869074064,0.0
2022-11-17,-0.0059144805507670845,-0.0059144805507670845,0.0
2022-11-18,-0.0041777936801065925,-0.0041777936801065925,0.0
2022-11-21,-0.0047975071937453396,-0.0047975071937453396,0.0
2022-11-22,0.0038052580900992685,0.0038052580900992685,0.0
2022-11-23,0.00430084703921095,0.00430084703921095,0.0
2022-11-28,-0.0016817356413825152,-0.0016817356413825152,0.0
2022-11-29,0.0012526853162976449,0.0012526853162976449,0.0
2022-11-30,0.009748883368104163,0.009748883368104163,0.0
2022-12-01,0.010654550485182466,0.010648811270639628,0.007652286057116542
2022-12-02,-0.002539222873774643,-0.002539222873774643,0.0
2022-12-05,-0.009131154434333986,-0.009131154434333986,0.0
2022-12-06,0.0019197499286139283,0.0019197499286139283,0.0
2022-12-07,0.004460170008875387,0.004460170008875387,0.0
2022-12-08,-0.0007673108061760218,-0.0007673108061760218,0.0
2022-12-09,-0.003310849465405505,-0.003310849465405505,0.0
2022-12-12,-0.003267245654590536,-0.003267245654590536,0.0
2022-12-13,0.010656283662104598,0.010656283662104598,0.0
2022-12-14,0.0010120764989097362,0.0010120764989097362,0.0
2022-12-15,-0.009248361336888134,-0.009248361336888134,0.0
2022-12-16,-0.0005625217504659707,-0.0005625217504659707,0.0
2022-12-19,-0.0010252277133628804,-0.0010252277133628804,0.0
2022-12-20,0.002468342373350376,0.002468342373350376,0.0
2022-12-21,-0.0034763136056563553,-0.0034763136056563553,0.0
2022-12-22,-0.005540765758248941,-0.005540765758248941,0.0
2022-12-23,-0.006297816433657199,-0.006297816433657199,0.0
2022-12-28,-0.0025289969970476583,-0.0025289969970476583,0.0
2022-12-29,0.004770699012605998,0.004770699012605998,0.0
2022-12-30,-0.0013202585883318766,-0.0013202585883318766,0.0
2023-01-04,0.0021838542746725003,0.0021738914832962744,0.013283721834968093
2023-01-05,-0.005617254222670267,-0.005617254222670267,0.0
2023-01-06,0.008039519483230012,0.008039519483230012,0.0
2023-01-09,0.0059834612846807415,0.0059834612846807415,0.0
2023-01-10,-0.0042944673814767865,-0.0042944673814767865,0.0
2023-01-11,0.0015870950181604549,0.0015870950181604549,0.0
2023-01-12,0.006202541107428499,0.006202541107428499,0.0
2023-01-13,0.00400747460902472,0.00400747460902472,0.0
2023-01-18,0.005538574771889911,0.005538574771889911,0.0
2023-01-19,0.003673012182464819,0.003673012182464819,0.0
2023-01-20,-0.004800286555309938,-0.004800286555309938,0.0
2023-01-23,0.001177712679350484,0.001177712679350484,0.0
2023-01-24,0.0031602068852269165,0.0031602068852269165,0.0
2023-01-25,-0.0020804356179592726,-0.0020804356179592726,0.0
2023-01-30,-0.0011417015289991986,-0.0011417015289991986,0.0
2023-01-31,0.0031892232772603025,0.0031892232772603025,0.0
2023-02-01,0.005695143788127367,0.005683431037104119,0.015617001364330585
2023-02-02,-0.007282303079982669,-0.007282303079982669,0.0
2023-02-03,-0.00741885794160703,-0.00741885794160703,0.0
2023-02-06,-0.003934149107624695,-0.003934149107624695,0.0
2023-02-07,-0.0013437635332893057,-0.0013437635332893057,0.0
2023-02-08,0.00489955642393923,0.00489955642393923,0.0
2023-02-09,-0.0036817560571950473,-0.0036817560571950473,0.0
2023-02-10,-0.0016942191401738001,-0.0016942191401738001,0.0
2023-02-13,-0.00252095540062072,-0.00252095540062072,0.0
2023-02-14,0.0017731515529974015,0.0017731515529974015,0.0
2023-02-15,-0.002608811847270516,-0.002608811847270516,0.0
2023-02-16,-0.0009796268930524652,-0.0009796268930524652,0.0
2023-02-17,0.00012169825251646748,0.00012169825251646748,0.0
2023-02-22,-0.006553461719596411,-0.006553461719596411,0.0
2023-02-23,0.00027762008956783575,0.00027762008956783575,0.0
2023-02-24,-0.005257769235034766,-0.005257769235034766,0.0
2023-02-27,0.0008474353935916426,0.0008474353935916426,0.0
2023-02-28,0.000259731786359235,0.000259731786359235,0.0
2023-03-01,0.0020616063877326,0.0020560015272786778,0.007473147271896574
2023-03-02,-0.00404513938756953,-0.00404513938756953,0.0
2023-03-03,0.011443643416749286,0.011443643416749286,0.0
2023-03-06,-5.715144185749727e-05,-5.715144185749727e-05,0.0
2023-03-09,0.00215278279554506,0.00215278279554506,0.0
2023-03-10,0.009816712448386434,0.009816712448386434,0.0
2023-03-13,0.006823061249154372,0.006823061249154372,0.0
2023-03-14,-0.007255501229816816,-0.007255501229816816,0.0
2023-03-15,0.006130406929698797,0.006130406929698797,0.0
2023-03-16,-0.0020840127069632003,-0.0020840127069632003,0.0
2023-03-17,0.01604998334175822,0.01604998334175822,0.0
2023-03-20,-0.00327326485871132,-0.00327326485871132,0.0
2023-03-21,-0.007444329871522178,-0.007444329871522178,0.0
2023-03-22,0.011061878510948604,0.011061878510948604,0.0
2023-03-23,0.004896383438285444,0.004896383438285444,0.0
2023-03-24,-0.006336201863448213,-0.006336201863448213,0.0
2023-03-27,-0.006675432013394654,-0.006675432013394654,0.0
2023-03-28,0.0020314432127058663,0.0020314432127058663,0.0
2023-03-29,5.2413380553956255e-05,5.2413380553956255e-05,0.0
2023-04-03,0.0046939757824488,0.004680098001130477,0.018503708424430276
2023-04-06,-0.0014964859072894127,-0.0014964859072894127,0.0
2023-04-10,-0.005302457265805106,-0.005302457265805106,0.0
2023-04-11,0.0038236156119721325,0.0038236156119721325,0.0
2023-04-12,0.004290618312635119,0.004290618312635119,0.0
2023-04-13,0.0036643099617801487,0.0036643099617801487,0.0
2023-04-18,0.0009472163656843204,0.0009472163656843204,0.0
2023-04-19,-0.0031001957953569856,-0.0031001957953569856,0.0
2023-04-20,0.0033319217548759467,0.0033319217548759467,0.0
2023-04-21,-0.004151917915021025,-0.004151917915021025,0.0
2023-04-24,0.004882461723518038,0.004882461723518038,0.0
2023-04-25,0.005433310186083974,0.005433310186083974,0.0
2023-04-26,-0.0022806289334149797,-0.0022806289334149797,0.0
2023-04-27,-0.00023891604324491347,-0.00023891604324491347,0.0
2023-04-28,0.0053597399803522435,0.0053597399803522435,0.0
2023-05-03,0.0039193437109898335,0.003914884285777787,0.0059459002827284835
2023-05-04,0.0053022803787276,0.0053022803787276,0.0
2023-05-05,-0.010502395026356857,-0.010502395026356857,0.0
2023-05-08,0.0019329082141660023,0.0019329082141660023,0.0
2023-05-09,0.001981044041626453,0.001981044041626453,0.0
2023-05-10,0.0028809999113084328,0.0028809999113084328,0.0
2023-05-11,-0.0019774666133286992,-0.0019774666133286992,0.0
2023-05-12,-0.0022485199775005263,-0.0022485199775005263,0.0
2023-05-15,0.0015113112535748122,0.0015113112535748122,0.0
2023-05-16,-0.007307105850855808,-0.007307105850855808,0.0
2023-05-17,-0.00416018854892903,-0.00416018854892903,0.0
2023-05-18,-0.007339224035353114,-0.007339224035353114,0.0
2023-05-19,0.003341799118344627,0.003341799118344627,0.0
2023-05-22,0.0006729398450371066,0.0006729398450371066,0.0
2023-05-23,0.0015609076343001383,0.0015609076343001383,0.0
2023-05-24,-0.004678604891998813,-0.004678604891998813,0.0
2023-05-25,-0.004585618451805487,-0.004585618451805487,0.0
2023-05-26,0.005237964590906518,0.005237964590906518,0.0
2023-05-31,-9.910685112499636e-05,-9.910685112499636e-05,0.0
2023-06-01,0.0027078203444614,0.0027006476642984947,0.009563573550540688
2023-06-02,-0.006808749179376877,-0.006808749179376877,0.0
2023-06-05,0.0029694736418643397,0.0029694736418643397,0.0
2023-06-06,0.0006631400333271517,0.0006631400333271517,0.0
2023-06-07,-0.004174296603450504,-0.004174296603450504,0.0
2023-06-08,0.004896121636804897,0.004896121636804897,0.0
2023-06-09,-0.0033727616973292184,-0.0033727616973292184,0.0
2023-06-12,0.0009395154874741679,0.0009395154874741679,0.0
2023-06-13,-0.0027681658661181646,-0.0027681658661181646,0.0
2023-06-14,0.0013462123896803336,0.0013462123896803336,0.0
2023-06-15,0.003650245795444951,0.003650245795444951,0.0
2023-06-16,0.0005245964243524998,0.0005245964243524998,0.0
2023-06-21,0.0005462953729629652,0.0005462953729629652,0.0
2023-06-22,-0.00671351867749678,-0.00671351867749678,0.0
2023-06-23,0.0003535070637022765,0.0003535070637022765,0.0
2023-06-26,0.0018580608700686802,0.0018580608700686802,0.0
2023-06-27,-0.0004131797904912881,-0.0004131797904912881,0.0
2023-06-28,0.003348787827266317,0.003348787827266317,0.0
2023-07-03,0.0012357234867389664,0.0012296032943878408,0.008160256468167287
2023-07-06,-0.0020104635179113324,-0.0020104635179113324,0.0
2023-07-07,-0.0008073773674198232,-0.0008073773674198232,0.0
2023-07-10,0.0023816979586751335,0.0023816979586751335,0.0
2023-07-11,0.0033880525256253188,0.0033880525256253188,0.0
2023-07-12,0.006762557045126944,0.006762557045126944,0.0
2023-07-13,0.0034834564556759807,0.0034834564556759807,0.0
2023-07-14,-0.0001617087816321704,-0.0001617087816321704,0.0
2023-07-17,0.003285138293898304,0.003285138293898304,0.0
2023-07-18,0.004830329798129707,0.004830329798129707,0.0
2023-07-19,0.0025910109943520993,0.0025910109943520993,0.0
2023-07-20,-0.001871793663179982,-0.001871793663179982,0.0
2023-07-21,-0.004738487736737272,-0.004738487736737272,0.0
2023-07-24,-0.003461844296732191,-0.003461844296732191,0.0
2023-07-25,0.0013853907522787222,0.0013853907522787222,0.0
2023-07-26,0.004423972010699034,0.004423972010699034,0.0
2023-07-27,-0.010940737034653477,-0.010940737034653477,0.0
2023-07-28,0.0034924457302063436,0.0034924457302063436,0.0
2023-07-31,0.0031517128116914793,0.0031517128116914793,0.0
2023-08-01,-0.005768285819079833,-0.005772809230842383,0.006031215683398927
2023-08-02,-0.00578436514634142,-0.00578436514634142,0.0
2023-08-03,-0.005074546681991688,-0.005074546681991688,0.0
2023-08-04,0.007050202108561183,0.007050202108561183,0.0
2023-08-07,-0.00020386192688774584,-0.00020386192688774584,0.0
2023-08-08,-0.0008745682789143772,-0.0008745682789143772,0.0
2023-08-09,-0.0003119157282156438,-0.0003119157282156438,0.0
2023-08-10,-0.0044666736321862,-0.0044666736321862,0.0
2023-08-11,-0.003749938059710171,-0.003749938059710171,0.0
2023-08-14,-0.0014343485819876382,-0.0014343485819876382,0.0
2023-08-17,-0.0026585418221865722,-0.0026585418221865722,0.0
2023-08-18,0.00010956934087964281,0.00010956934087964281,0.0
2023-08-21,0.00024984946404158447,0.00024984946404158447,0.0
2023-08-22,0.0007393397725350346,0.0007393397725350346,0.0
2023-08-23,0.007780152642832479,0.007780152642832479,0.0
2023-08-24,-0.0023041764933622016,-0.0023041764933622016,0.0
2023-08-25,-0.0026161932428507505,-0.0026161932428507505,0.0
2023-08-28,0.002576863534030749,0.002576863534030749,0.0
2023-08-29,0.006255399315461268,0.006255399315461268,0.0
2023-08-30,0.0008834381544913843,0.0008834381544913843,0.0
2023-08-31,-0.0014830330676395749,-0.0014830330676395749,0.0
2023-09-01,0.0012503786453299673,0.0012463653548680234,0.005351053949258611
2023-09-06,-0.0017449969211783037,-0.0017449969211783037,0.0
2023-09-07,0.003477197523030207,0.003477197523030207,0.0
2023-09-08,0.0017706006106164888,0.0017706006106164888,0.0
2023-09-11,0.0030516689461301955,0.0030516689461301955,0.0
2023-09-12,-0.0013052251995547236,-0.0013052251995547236,0.0
2023-09-13,0.0009350940310325255,0.0009350940310325255,0.0
2023-09-14,-9.206802688898803e-06,-9.206802688898803e-06,0.0
2023-09-15,0.002657658508246249,0.002657658508246249,0.0
2023-09-18,0.0012444521303328134,0.0012444521303328134,0.0
2023-09-21,-0.007593434331221431,-0.007593434331221431,0.0
2023-09-22,0.0011520338266028075,0.0011520338266028075,0.0
2023-09-25,-0.00412811912296387,-0.00412811912296387,0.0
2023-09-26,-0.0029380089418460835,-0.0029380089418460835,0.0
2023-09-27,-0.004671111022123655,-0.004671111022123655,0.0
2023-09-28,-0.0041379294166660465,-0.0041379294166660465,0.0
2023-09-29,-0.0012940103924616248,-0.0012940103924616248,0.0
2023-10-04,0.0004831183886849666,0.0004738704438153888,0.012330593159437048
2023-10-05,0.0018840608628644612,0.0018840608628644612,0.0
2023-10-06,0.0015685048319922209,0.0015685048319922209,0.0
2023-10-09,0.007882028317440476,0.007882028317440476,0.0
2023-10-10,0.0017548183356502552,0.0017548183356502552,0.0
2023-10-11,0.0063041379888250345,0.0063041379888250345,0.0
2023-10-12,-0.004530873226969367,-0.004530873226969367,0.0
2023-10-13,0.01202598685852784,0.01202598685852784,0.0
2023-10-16,-0.003946597218850417,-0.003946597218850417,0.0
2023-10-17,-0.0012792640279237818,-0.0012792640279237818,0.0
2023-10-18,0.0010544916899481037,0.0010544916899481037,0.0
2023-10-19,0.0018721054348705708,0.0018721054348705708,0.0
2023-10-20,0.0014656139990376394,0.0014656139990376394,0.0
2023-10-23,-0.004043210878787686,-0.004043210878787686,0.0
2023-10-26,-0.0014589832368980516,-0.0014589832368980516,0.0
2023-10-27,0.007782415526747478,0.007782415526747478,0.0
2023-10-30,-0.0015346960370792512,-0.0015346960370792512,0.0
2023-10-31,-0.003652017327573915,-0.003652017327573915,0.0
2023-11-01,0.0011816067252592665,0.0011671928401075866,0.019218513535573134
2023-11-02,0.005686647274674728,0.005686647274674728,0.0
2023-11-03,0.0054712238736886395,0.0054712238736886395,0.0
2023-11-06,-0.0014328944730202984,-0.0014328944730202984,0.0
2023-11-07,0.0004621038016929022,0.0004621038016929022,0.0
2023-11-08,-0.0012776179970480218,-0.0012776179970480218,0.0
2023-11-09,-0.0029240316795334648,-0.0029240316795334648,0.0
2023-11-10,-0.002687902567136657,-0.002687902567136657,0.0
2023-11-13,0.001927935049494846,0.001927935049494846,0.0
2023-11-16,0.007710112452271031,0.007710112452271031,0.0
2023-11-17,-0.00038529646782096977,-0.00038529646782096977,0.0
2023-11-20,-0.0007025559325420006,-0.0007025559325420006,0.0
2023-11-21,0.005455686822556123,0.005455686822556123,0.0
2023-11-22,-0.001025538463146786,-0.001025538463146786,0.0
2023-11-29,0.005727542312504095,0.005727542312504095,0.0
2023-11-30,-0.002401111425326075,-0.002401111425326075,0.0
2023-12-01,0.011061961042448599,0.011055204526788553,0.0090086875467274
2023-12-04,-0.0019206024023187937,-0.0019206024023187937,0.0
2023-12-05,0.0038369124119140914,0.0038369124119140914,0.0
2023-12-06,0.003921819067812612,0.003921819067812612,0.0
2023-12-07,-0.0005506336876231642,-0.0005506336876231642,0.0
2023-12-08,-0.00543326170481669,-0.00543326170481669,0.0
2023-12-11,-0.0031108017029034332,-0.0031108017029034332,0.0
2023-12-12,-0.000958841667077871,-0.000958841667077871,0.0
2023-12-13,0.012443586566739415,0.012443586566739415,0.0
2023-12-14,0.008812318246756419,0.008812318246756419,0.0
2023-12-15,0.001119416152211886,0.001119416152211886,0.0
2023-12-18,0.00010951718914190388,0.00010951718914190388,0.0
2023-12-19,0.0033662992321800925,0.0033662992321800925,0.0
2023-12-20,-0.0050236933993704,-0.0050236933993704,0.0
2023-12-21,0.0034357628278454343,0.0034357628278454343,0.0
2023-12-22,0.0026310447083400935,0.0026310447083400935,0.0
2023-12-26,0.004140926588450078,0.004140926588450078,0.0
2023-12-27,0.007440011933154537,0.007440011933154537,0.0
2023-12-28,-0.0012107830928796597,-0.0012107830928796597,0.0
2023-12-29,-0.00208194116336274,-0.00208194116336274,0.0
